<?xml version="1.0" encoding="UTF-8"?>
<PMML version="3.1" xmlns="http://www.dmg.org/PMML-3_1" xmlns:xsi="http://www.w3.org/2001/XMLSchema-instance">
	<Header copyright="R.R.">
		<Application name="SIPINA" version="3.6" />
	</Header>
	<DataDictionary numberOfFields="15">
		<DataField name="Montant" optype="continuous" dataType="double">
			<Interval closure="closedClosed" leftMargin="9.99999977648258E-003" rightMargin="4.50000000000000E+003" />
		</DataField>
		<DataField name="D2CB" optype="continuous" dataType="double">
			<Interval closure="closedClosed" leftMargin="1.00000000000000E+000" rightMargin="7.34000000000000E+002" />
		</DataField>
		<DataField name="VerifianceCPT1" optype="continuous" dataType="double">
			<Interval closure="closedClosed" leftMargin="0.00000000000000E+000" rightMargin="3.50000000000000E+001" />
		</DataField>
		<DataField name="VerifianceCPT2" optype="continuous" dataType="double">
			<Interval closure="closedClosed" leftMargin="0.00000000000000E+000" rightMargin="5.30000000000000E+001" />
		</DataField>
		<DataField name="TauxImpNb_RB" optype="continuous" dataType="double">
			<Interval closure="closedClosed" leftMargin="0.00000000000000E+000" rightMargin="7.14285693359375E+003" />
		</DataField>
		<DataField name="TauxImpNB_CPM" optype="continuous" dataType="double">
			<Interval closure="closedClosed" leftMargin="4.39424991607666E-001" rightMargin="1.27889816284180E+002" />
		</DataField>
		<DataField name="Heure" optype="continuous" dataType="double">
			<Interval closure="closedClosed" leftMargin="7.14000000000000E+003" rightMargin="8.55000000000000E+004" />
		</DataField>
		<DataField name="EcartNumCheq" optype="continuous" dataType="double">
			<Interval closure="closedClosed" leftMargin="0.00000000000000E+000" rightMargin="9.95091300000000E+006" />
		</DataField>
		<DataField name="DiffDateTr1" optype="continuous" dataType="double">
			<Interval closure="closedClosed" leftMargin="0.00000000000000E+000" rightMargin="5.00000000000000E+000" />
		</DataField>
		<DataField name="DiffDateTr2" optype="continuous" dataType="double">
			<Interval closure="closedClosed" leftMargin="0.00000000000000E+000" rightMargin="5.00000000000000E+000" />
		</DataField>
		<DataField name="DiffDateTr3" optype="continuous" dataType="double">
			<Interval closure="closedClosed" leftMargin="0.00000000000000E+000" rightMargin="5.00000000000000E+000" />
		</DataField>
		<DataField name="NbrMagasin3J" optype="continuous" dataType="double">
			<Interval closure="closedClosed" leftMargin="1.00000000000000E+000" rightMargin="8.00000000000000E+000" />
		</DataField>
		<DataField name="CA3TR" optype="continuous" dataType="double">
			<Interval closure="closedClosed" leftMargin="0.00000000000000E+000" rightMargin="1.30000000000000E+004" />
		</DataField>
		<DataField name="CA3TRetMtt" optype="continuous" dataType="double">
			<Interval closure="closedClosed" leftMargin="9.99999977648258E-003" rightMargin="1.75000000000000E+004" />
		</DataField>
		<DataField name="Class" optype="categorical" dataType="string">
			<Value value="N" />
			<Value value="F" />
		</DataField>
	</DataDictionary>
	<TreeModel modelName="DecisionTree" functionName="classification" splitCharacteristic="multiSplit" missingValueStrategy="lastPrediction">
		<MiningSchema>
			<MiningField name="Montant" />
			<MiningField name="D2CB" />
			<MiningField name="VerifianceCPT1" />
			<MiningField name="VerifianceCPT2" />
			<MiningField name="TauxImpNb_RB" />
			<MiningField name="TauxImpNB_CPM" />
			<MiningField name="Heure" />
			<MiningField name="EcartNumCheq" />
			<MiningField name="DiffDateTr1" />
			<MiningField name="DiffDateTr2" />
			<MiningField name="DiffDateTr3" />
			<MiningField name="NbrMagasin3J" />
			<MiningField name="CA3TR" />
			<MiningField name="CA3TRetMtt" />
			<MiningField name="Class" usageType="predicted" />
		</MiningSchema>
		<Node id="0" score="N" recordCount="7390602.0">
			<True />
			<ScoreDistribution value="N" recordCount="7373558.0" />
			<ScoreDistribution value="F" recordCount="17044.0" />
			<Node id="1" score="N" recordCount="7386953.0">
				<SimplePredicate field="VerifianceCPT2" operator="lessThan" value="3.50000000000000E+000" />
				<ScoreDistribution value="N" recordCount="7371969.0" />
				<ScoreDistribution value="F" recordCount="14984.0" />
				<Node id="2" score="N" recordCount="7360071.0">
					<SimplePredicate field="CA3TR" operator="lessThan" value="2.80945007324219E+002" />
					<ScoreDistribution value="N" recordCount="7346735.0" />
					<ScoreDistribution value="F" recordCount="13336.0" />
					<Node id="3" score="N" recordCount="7271822.0">
						<SimplePredicate field="VerifianceCPT2" operator="lessThan" value="1.50000000000000E+000" />
						<ScoreDistribution value="N" recordCount="7260224.0" />
						<ScoreDistribution value="F" recordCount="11598.0" />
						<Node id="4" score="N" recordCount="7213312.0">
							<SimplePredicate field="Montant" operator="lessThan" value="3.95864990234375E+002" />
							<ScoreDistribution value="N" recordCount="7202421.0" />
							<ScoreDistribution value="F" recordCount="10891.0" />
							<Node id="5" score="N" recordCount="1559157.0">
								<SimplePredicate field="D2CB" operator="lessThan" value="3.32500000000000E+002" />
								<ScoreDistribution value="N" recordCount="1550753.0" />
								<ScoreDistribution value="F" recordCount="8404.0" />
								<Node id="6" score="N" recordCount="3117.0">
									<SimplePredicate field="DiffDateTr3" operator="lessThan" value="2.99826383590698E+000" />
									<ScoreDistribution value="N" recordCount="2843.0" />
									<ScoreDistribution value="F" recordCount="274.0" />
									<Node id="7" score="N" recordCount="1053.0">
										<SimplePredicate field="D2CB" operator="lessThan" value="3.45000000000000E+001" />
										<ScoreDistribution value="N" recordCount="834.0" />
										<ScoreDistribution value="F" recordCount="219.0" />
										<Node id="8" score="N" recordCount="1036.0">
											<SimplePredicate field="TauxImpNB_CPM" operator="lessThan" value="1.02666458129883E+002" />
											<ScoreDistribution value="N" recordCount="833.0" />
											<ScoreDistribution value="F" recordCount="203.0" />
											<Node id="9" score="N" recordCount="276.0">
												<SimplePredicate field="Montant" operator="lessThan" value="1.50150003433228E+001" />
												<ScoreDistribution value="N" recordCount="274.0" />
												<ScoreDistribution value="F" recordCount="2.0" />
											</Node>
											<Node id="10" score="N" recordCount="760.0">
												<SimplePredicate field="Montant" operator="greaterOrEqual" value="1.50150003433228E+001" />
												<ScoreDistribution value="N" recordCount="559.0" />
												<ScoreDistribution value="F" recordCount="201.0" />
												<Node id="11" score="N" recordCount="631.0">
													<SimplePredicate field="TauxImpNb_RB" operator="lessThan" value="6.48567276000977E+001" />
													<ScoreDistribution value="N" recordCount="502.0" />
													<ScoreDistribution value="F" recordCount="129.0" />
													<Node id="12" score="N" recordCount="554.0">
														<SimplePredicate field="CA3TRetMtt" operator="lessThan" value="2.81065002441406E+002" />
														<ScoreDistribution value="N" recordCount="465.0" />
														<ScoreDistribution value="F" recordCount="89.0" />
													</Node>
													<Node id="13" score="F" recordCount="77.0">
														<SimplePredicate field="CA3TRetMtt" operator="greaterOrEqual" value="2.81065002441406E+002" />
														<ScoreDistribution value="N" recordCount="37.0" />
														<ScoreDistribution value="F" recordCount="40.0" />
														<Node id="14" score="N" recordCount="6.0">
															<SimplePredicate field="TauxImpNb_RB" operator="lessThan" value="1.51623172760010E+001" />
															<ScoreDistribution value="N" recordCount="6.0" />
															<ScoreDistribution value="F" recordCount="0.0" />
														</Node>
														<Node id="15" score="F" recordCount="71.0">
															<SimplePredicate field="TauxImpNb_RB" operator="greaterOrEqual" value="1.51623172760010E+001" />
															<ScoreDistribution value="N" recordCount="31.0" />
															<ScoreDistribution value="F" recordCount="40.0" />
															<Node id="16" score="F" recordCount="25.0">
																<SimplePredicate field="DiffDateTr3" operator="lessThan" value="1.19444441795349E+000" />
																<ScoreDistribution value="N" recordCount="4.0" />
																<ScoreDistribution value="F" recordCount="21.0" />
															</Node>
															<Node id="17" score="N" recordCount="46.0">
																<SimplePredicate field="DiffDateTr3" operator="greaterOrEqual" value="1.19444441795349E+000" />
																<ScoreDistribution value="N" recordCount="27.0" />
																<ScoreDistribution value="F" recordCount="19.0" />
																<Node id="18" score="F" recordCount="5.0">
																	<SimplePredicate field="TauxImpNb_RB" operator="lessThan" value="2.25502109527588E+001" />
																	<ScoreDistribution value="N" recordCount="0.0" />
																	<ScoreDistribution value="F" recordCount="5.0" />
																</Node>
																<Node id="19" score="N" recordCount="41.0">
																	<SimplePredicate field="TauxImpNb_RB" operator="greaterOrEqual" value="2.25502109527588E+001" />
																	<ScoreDistribution value="N" recordCount="27.0" />
																	<ScoreDistribution value="F" recordCount="14.0" />
																	<Node id="20" score="F" recordCount="22.0">
																		<SimplePredicate field="D2CB" operator="lessThan" value="1.20000000000000E+001" />
																		<ScoreDistribution value="N" recordCount="10.0" />
																		<ScoreDistribution value="F" recordCount="12.0" />
																	</Node>
																	<Node id="21" score="N" recordCount="19.0">
																		<SimplePredicate field="D2CB" operator="greaterOrEqual" value="1.20000000000000E+001" />
																		<ScoreDistribution value="N" recordCount="17.0" />
																		<ScoreDistribution value="F" recordCount="2.0" />
																		<Node id="22" score="N" recordCount="16.0">
																			<SimplePredicate field="DiffDateTr3" operator="lessThan" value="2.94027781486511E+000" />
																			<ScoreDistribution value="N" recordCount="16.0" />
																			<ScoreDistribution value="F" recordCount="0.0" />
																		</Node>
																		<Node id="23" score="F" recordCount="3.0">
																			<SimplePredicate field="DiffDateTr3" operator="greaterOrEqual" value="2.94027781486511E+000" />
																			<ScoreDistribution value="N" recordCount="1.0" />
																			<ScoreDistribution value="F" recordCount="2.0" />
																		</Node>
																	</Node>
																</Node>
															</Node>
														</Node>
													</Node>
												</Node>
												<Node id="24" score="F" recordCount="129.0">
													<SimplePredicate field="TauxImpNb_RB" operator="greaterOrEqual" value="6.48567276000977E+001" />
													<ScoreDistribution value="N" recordCount="57.0" />
													<ScoreDistribution value="F" recordCount="72.0" />
													<Node id="25" score="N" recordCount="9.0">
														<SimplePredicate field="TauxImpNB_CPM" operator="lessThan" value="2.71796035766602E+001" />
														<ScoreDistribution value="N" recordCount="9.0" />
														<ScoreDistribution value="F" recordCount="0.0" />
													</Node>
													<Node id="26" score="F" recordCount="120.0">
														<SimplePredicate field="TauxImpNB_CPM" operator="greaterOrEqual" value="2.71796035766602E+001" />
														<ScoreDistribution value="N" recordCount="48.0" />
														<ScoreDistribution value="F" recordCount="72.0" />
														<Node id="27" score="N" recordCount="47.0">
															<SimplePredicate field="EcartNumCheq" operator="lessThan" value="4.50000000000000E+000" />
															<ScoreDistribution value="N" recordCount="32.0" />
															<ScoreDistribution value="F" recordCount="15.0" />
															<Node id="28" score="F" recordCount="4.0">
																<SimplePredicate field="TauxImpNb_RB" operator="lessThan" value="6.53212203979492E+001" />
																<ScoreDistribution value="N" recordCount="0.0" />
																<ScoreDistribution value="F" recordCount="4.0" />
															</Node>
															<Node id="29" score="N" recordCount="43.0">
																<SimplePredicate field="TauxImpNb_RB" operator="greaterOrEqual" value="6.53212203979492E+001" />
																<ScoreDistribution value="N" recordCount="32.0" />
																<ScoreDistribution value="F" recordCount="11.0" />
															</Node>
														</Node>
														<Node id="30" score="F" recordCount="73.0">
															<SimplePredicate field="EcartNumCheq" operator="greaterOrEqual" value="4.50000000000000E+000" />
															<ScoreDistribution value="N" recordCount="16.0" />
															<ScoreDistribution value="F" recordCount="57.0" />
															<Node id="31" score="F" recordCount="56.0">
																<SimplePredicate field="DiffDateTr3" operator="lessThan" value="2.10937500000000E+000" />
																<ScoreDistribution value="N" recordCount="6.0" />
																<ScoreDistribution value="F" recordCount="50.0" />
																<Node id="32" score="F" recordCount="51.0">
																	<SimplePredicate field="D2CB" operator="lessThan" value="9.50000000000000E+000" />
																	<ScoreDistribution value="N" recordCount="3.0" />
																	<ScoreDistribution value="F" recordCount="48.0" />
																	<Node id="33" score="F" recordCount="38.0">
																		<SimplePredicate field="TauxImpNb_RB" operator="lessThan" value="8.67096786499023E+001" />
																		<ScoreDistribution value="N" recordCount="0.0" />
																		<ScoreDistribution value="F" recordCount="38.0" />
																	</Node>
																	<Node id="34" score="F" recordCount="13.0">
																		<SimplePredicate field="TauxImpNb_RB" operator="greaterOrEqual" value="8.67096786499023E+001" />
																		<ScoreDistribution value="N" recordCount="3.0" />
																		<ScoreDistribution value="F" recordCount="10.0" />
																		<Node id="35" score="N" recordCount="5.0">
																			<SimplePredicate field="DiffDateTr2" operator="lessThan" value="9.02430534362793E-001" />
																			<ScoreDistribution value="N" recordCount="3.0" />
																			<ScoreDistribution value="F" recordCount="2.0" />
																		</Node>
																		<Node id="36" score="F" recordCount="8.0">
																			<SimplePredicate field="DiffDateTr2" operator="greaterOrEqual" value="9.02430534362793E-001" />
																			<ScoreDistribution value="N" recordCount="0.0" />
																			<ScoreDistribution value="F" recordCount="8.0" />
																		</Node>
																	</Node>
																</Node>
																<Node id="37" score="N" recordCount="5.0">
																	<SimplePredicate field="D2CB" operator="greaterOrEqual" value="9.50000000000000E+000" />
																	<ScoreDistribution value="N" recordCount="3.0" />
																	<ScoreDistribution value="F" recordCount="2.0" />
																</Node>
															</Node>
															<Node id="38" score="N" recordCount="17.0">
																<SimplePredicate field="DiffDateTr3" operator="greaterOrEqual" value="2.10937500000000E+000" />
																<ScoreDistribution value="N" recordCount="10.0" />
																<ScoreDistribution value="F" recordCount="7.0" />
																<Node id="39" score="N" recordCount="13.0">
																	<SimplePredicate field="TauxImpNB_CPM" operator="lessThan" value="6.93038635253906E+001" />
																	<ScoreDistribution value="N" recordCount="10.0" />
																	<ScoreDistribution value="F" recordCount="3.0" />
																</Node>
																<Node id="40" score="F" recordCount="4.0">
																	<SimplePredicate field="TauxImpNB_CPM" operator="greaterOrEqual" value="6.93038635253906E+001" />
																	<ScoreDistribution value="N" recordCount="0.0" />
																	<ScoreDistribution value="F" recordCount="4.0" />
																</Node>
															</Node>
														</Node>
													</Node>
												</Node>
											</Node>
										</Node>
										<Node id="41" score="F" recordCount="17.0">
											<SimplePredicate field="TauxImpNB_CPM" operator="greaterOrEqual" value="1.02666458129883E+002" />
											<ScoreDistribution value="N" recordCount="1.0" />
											<ScoreDistribution value="F" recordCount="16.0" />
										</Node>
									</Node>
									<Node id="42" score="N" recordCount="2064.0">
										<SimplePredicate field="D2CB" operator="greaterOrEqual" value="3.45000000000000E+001" />
										<ScoreDistribution value="N" recordCount="2009.0" />
										<ScoreDistribution value="F" recordCount="55.0" />
									</Node>
								</Node>
								<Node id="43" score="N" recordCount="1556040.0">
									<SimplePredicate field="DiffDateTr3" operator="greaterOrEqual" value="2.99826383590698E+000" />
									<ScoreDistribution value="N" recordCount="1547910.0" />
									<ScoreDistribution value="F" recordCount="8130.0" />
									<Node id="44" score="N" recordCount="14804.0">
										<SimplePredicate field="DiffDateTr2" operator="lessThan" value="2.99687480926514E+000" />
										<ScoreDistribution value="N" recordCount="14381.0" />
										<ScoreDistribution value="F" recordCount="423.0" />
										<Node id="45" score="N" recordCount="4630.0">
											<SimplePredicate field="D2CB" operator="lessThan" value="4.15000000000000E+001" />
											<ScoreDistribution value="N" recordCount="4331.0" />
											<ScoreDistribution value="F" recordCount="299.0" />
											<Node id="46" score="N" recordCount="4041.0">
												<SimplePredicate field="CA3TRetMtt" operator="lessThan" value="2.41854995727539E+002" />
												<ScoreDistribution value="N" recordCount="3831.0" />
												<ScoreDistribution value="F" recordCount="210.0" />
											</Node>
											<Node id="47" score="N" recordCount="589.0">
												<SimplePredicate field="CA3TRetMtt" operator="greaterOrEqual" value="2.41854995727539E+002" />
												<ScoreDistribution value="N" recordCount="500.0" />
												<ScoreDistribution value="F" recordCount="89.0" />
												<Node id="48" score="N" recordCount="567.0">
													<SimplePredicate field="CA3TRetMtt" operator="lessThan" value="3.95734985351563E+002" />
													<ScoreDistribution value="N" recordCount="489.0" />
													<ScoreDistribution value="F" recordCount="78.0" />
													<Node id="49" score="N" recordCount="106.0">
														<SimplePredicate field="Montant" operator="lessThan" value="4.00299987792969E+001" />
														<ScoreDistribution value="N" recordCount="104.0" />
														<ScoreDistribution value="F" recordCount="2.0" />
													</Node>
													<Node id="50" score="N" recordCount="461.0">
														<SimplePredicate field="Montant" operator="greaterOrEqual" value="4.00299987792969E+001" />
														<ScoreDistribution value="N" recordCount="385.0" />
														<ScoreDistribution value="F" recordCount="76.0" />
														<Node id="51" score="N" recordCount="348.0">
															<SimplePredicate field="EcartNumCheq" operator="lessThan" value="4.50000000000000E+000" />
															<ScoreDistribution value="N" recordCount="308.0" />
															<ScoreDistribution value="F" recordCount="40.0" />
														</Node>
														<Node id="52" score="N" recordCount="113.0">
															<SimplePredicate field="EcartNumCheq" operator="greaterOrEqual" value="4.50000000000000E+000" />
															<ScoreDistribution value="N" recordCount="77.0" />
															<ScoreDistribution value="F" recordCount="36.0" />
															<Node id="53" score="N" recordCount="40.0">
																<SimplePredicate field="TauxImpNb_RB" operator="lessThan" value="3.02689666748047E+001" />
																<ScoreDistribution value="N" recordCount="37.0" />
																<ScoreDistribution value="F" recordCount="3.0" />
															</Node>
															<Node id="54" score="N" recordCount="73.0">
																<SimplePredicate field="TauxImpNb_RB" operator="greaterOrEqual" value="3.02689666748047E+001" />
																<ScoreDistribution value="N" recordCount="40.0" />
																<ScoreDistribution value="F" recordCount="33.0" />
																<Node id="55" score="F" recordCount="57.0">
																	<SimplePredicate field="D2CB" operator="lessThan" value="1.75000000000000E+001" />
																	<ScoreDistribution value="N" recordCount="25.0" />
																	<ScoreDistribution value="F" recordCount="32.0" />
																	<Node id="56" score="F" recordCount="52.0">
																		<SimplePredicate field="Heure" operator="lessThan" value="7.59300000000000E+004" />
																		<ScoreDistribution value="N" recordCount="20.0" />
																		<ScoreDistribution value="F" recordCount="32.0" />
																		<Node id="57" score="N" recordCount="11.0">
																			<SimplePredicate field="TauxImpNB_CPM" operator="lessThan" value="2.37111015319824E+001" />
																			<ScoreDistribution value="N" recordCount="9.0" />
																			<ScoreDistribution value="F" recordCount="2.0" />
																			<Node id="58" score="F" recordCount="3.0">
																				<SimplePredicate field="DiffDateTr2" operator="lessThan" value="2.05555558204651E+000" />
																				<ScoreDistribution value="N" recordCount="1.0" />
																				<ScoreDistribution value="F" recordCount="2.0" />
																			</Node>
																			<Node id="59" score="N" recordCount="8.0">
																				<SimplePredicate field="DiffDateTr2" operator="greaterOrEqual" value="2.05555558204651E+000" />
																				<ScoreDistribution value="N" recordCount="8.0" />
																				<ScoreDistribution value="F" recordCount="0.0" />
																			</Node>
																		</Node>
																		<Node id="60" score="F" recordCount="41.0">
																			<SimplePredicate field="TauxImpNB_CPM" operator="greaterOrEqual" value="2.37111015319824E+001" />
																			<ScoreDistribution value="N" recordCount="11.0" />
																			<ScoreDistribution value="F" recordCount="30.0" />
																		</Node>
																	</Node>
																	<Node id="61" score="N" recordCount="5.0">
																		<SimplePredicate field="Heure" operator="greaterOrEqual" value="7.59300000000000E+004" />
																		<ScoreDistribution value="N" recordCount="5.0" />
																		<ScoreDistribution value="F" recordCount="0.0" />
																	</Node>
																</Node>
																<Node id="62" score="N" recordCount="16.0">
																	<SimplePredicate field="D2CB" operator="greaterOrEqual" value="1.75000000000000E+001" />
																	<ScoreDistribution value="N" recordCount="15.0" />
																	<ScoreDistribution value="F" recordCount="1.0" />
																</Node>
															</Node>
														</Node>
													</Node>
												</Node>
												<Node id="63" score="N" recordCount="22.0">
													<SimplePredicate field="CA3TRetMtt" operator="greaterOrEqual" value="3.95734985351563E+002" />
													<ScoreDistribution value="N" recordCount="11.0" />
													<ScoreDistribution value="F" recordCount="11.0" />
													<Node id="64" score="F" recordCount="8.0">
														<SimplePredicate field="VerifianceCPT1" operator="lessThan" value="5.00000000000000E-001" />
														<ScoreDistribution value="N" recordCount="0.0" />
														<ScoreDistribution value="F" recordCount="8.0" />
													</Node>
													<Node id="65" score="N" recordCount="14.0">
														<SimplePredicate field="VerifianceCPT1" operator="greaterOrEqual" value="5.00000000000000E-001" />
														<ScoreDistribution value="N" recordCount="11.0" />
														<ScoreDistribution value="F" recordCount="3.0" />
													</Node>
												</Node>
											</Node>
										</Node>
										<Node id="66" score="N" recordCount="10174.0">
											<SimplePredicate field="D2CB" operator="greaterOrEqual" value="4.15000000000000E+001" />
											<ScoreDistribution value="N" recordCount="10050.0" />
											<ScoreDistribution value="F" recordCount="124.0" />
										</Node>
									</Node>
									<Node id="67" score="N" recordCount="1541236.0">
										<SimplePredicate field="DiffDateTr2" operator="greaterOrEqual" value="2.99687480926514E+000" />
										<ScoreDistribution value="N" recordCount="1533529.0" />
										<ScoreDistribution value="F" recordCount="7707.0" />
										<Node id="68" score="N" recordCount="1437096.0">
											<SimplePredicate field="CA3TR" operator="lessThan" value="1.99850006103516E+001" />
											<ScoreDistribution value="N" recordCount="1430769.0" />
											<ScoreDistribution value="F" recordCount="6327.0" />
										</Node>
										<Node id="69" score="N" recordCount="104140.0">
											<SimplePredicate field="CA3TR" operator="greaterOrEqual" value="1.99850006103516E+001" />
											<ScoreDistribution value="N" recordCount="102760.0" />
											<ScoreDistribution value="F" recordCount="1380.0" />
											<Node id="70" score="N" recordCount="6992.0">
												<SimplePredicate field="Montant" operator="lessThan" value="1.49949998855591E+001" />
												<ScoreDistribution value="N" recordCount="6992.0" />
												<ScoreDistribution value="F" recordCount="0.0" />
											</Node>
											<Node id="71" score="N" recordCount="97148.0">
												<SimplePredicate field="Montant" operator="greaterOrEqual" value="1.49949998855591E+001" />
												<ScoreDistribution value="N" recordCount="95768.0" />
												<ScoreDistribution value="F" recordCount="1380.0" />
												<Node id="72" score="N" recordCount="39371.0">
													<SimplePredicate field="D2CB" operator="lessThan" value="5.95000000000000E+001" />
													<ScoreDistribution value="N" recordCount="38411.0" />
													<ScoreDistribution value="F" recordCount="960.0" />
													<Node id="73" score="N" recordCount="33251.0">
														<SimplePredicate field="EcartNumCheq" operator="lessThan" value="2.50000000000000E+000" />
														<ScoreDistribution value="N" recordCount="32600.0" />
														<ScoreDistribution value="F" recordCount="651.0" />
													</Node>
													<Node id="74" score="N" recordCount="6120.0">
														<SimplePredicate field="EcartNumCheq" operator="greaterOrEqual" value="2.50000000000000E+000" />
														<ScoreDistribution value="N" recordCount="5811.0" />
														<ScoreDistribution value="F" recordCount="309.0" />
														<Node id="75" score="N" recordCount="2764.0">
															<SimplePredicate field="TauxImpNb_RB" operator="lessThan" value="3.07613315582275E+001" />
															<ScoreDistribution value="N" recordCount="2693.0" />
															<ScoreDistribution value="F" recordCount="71.0" />
														</Node>
														<Node id="76" score="N" recordCount="3356.0">
															<SimplePredicate field="TauxImpNb_RB" operator="greaterOrEqual" value="3.07613315582275E+001" />
															<ScoreDistribution value="N" recordCount="3118.0" />
															<ScoreDistribution value="F" recordCount="238.0" />
															<Node id="77" score="N" recordCount="837.0">
																<SimplePredicate field="Montant" operator="lessThan" value="3.04350013732910E+001" />
																<ScoreDistribution value="N" recordCount="813.0" />
																<ScoreDistribution value="F" recordCount="24.0" />
															</Node>
															<Node id="78" score="N" recordCount="2519.0">
																<SimplePredicate field="Montant" operator="greaterOrEqual" value="3.04350013732910E+001" />
																<ScoreDistribution value="N" recordCount="2305.0" />
																<ScoreDistribution value="F" recordCount="214.0" />
																<Node id="79" score="N" recordCount="2105.0">
																	<SimplePredicate field="TauxImpNB_CPM" operator="lessThan" value="5.78705749511719E+001" />
																	<ScoreDistribution value="N" recordCount="1956.0" />
																	<ScoreDistribution value="F" recordCount="149.0" />
																	<Node id="80" score="N" recordCount="2102.0">
																		<SimplePredicate field="CA3TRetMtt" operator="lessThan" value="5.28565002441406E+002" />
																		<ScoreDistribution value="N" recordCount="1956.0" />
																		<ScoreDistribution value="F" recordCount="146.0" />
																		<Node id="81" score="N" recordCount="1449.0">
																			<SimplePredicate field="D2CB" operator="lessThan" value="1.85000000000000E+001" />
																			<ScoreDistribution value="N" recordCount="1328.0" />
																			<ScoreDistribution value="F" recordCount="121.0" />
																			<Node id="82" score="N" recordCount="1352.0">
																				<SimplePredicate field="EcartNumCheq" operator="lessThan" value="5.79940000000000E+004" />
																				<ScoreDistribution value="N" recordCount="1231.0" />
																				<ScoreDistribution value="F" recordCount="121.0" />
																				<Node id="83" score="N" recordCount="1059.0">
																					<SimplePredicate field="EcartNumCheq" operator="lessThan" value="5.50000000000000E+000" />
																					<ScoreDistribution value="N" recordCount="988.0" />
																					<ScoreDistribution value="F" recordCount="71.0" />
																				</Node>
																				<Node id="84" score="N" recordCount="293.0">
																					<SimplePredicate field="EcartNumCheq" operator="greaterOrEqual" value="5.50000000000000E+000" />
																					<ScoreDistribution value="N" recordCount="243.0" />
																					<ScoreDistribution value="F" recordCount="50.0" />
																					<Node id="85" score="N" recordCount="289.0">
																						<SimplePredicate field="CA3TR" operator="lessThan" value="2.20475006103516E+002" />
																						<ScoreDistribution value="N" recordCount="243.0" />
																						<ScoreDistribution value="F" recordCount="46.0" />
																					</Node>
																					<Node id="86" score="F" recordCount="4.0">
																						<SimplePredicate field="CA3TR" operator="greaterOrEqual" value="2.20475006103516E+002" />
																						<ScoreDistribution value="N" recordCount="0.0" />
																						<ScoreDistribution value="F" recordCount="4.0" />
																					</Node>
																				</Node>
																			</Node>
																			<Node id="87" score="N" recordCount="97.0">
																				<SimplePredicate field="EcartNumCheq" operator="greaterOrEqual" value="5.79940000000000E+004" />
																				<ScoreDistribution value="N" recordCount="97.0" />
																				<ScoreDistribution value="F" recordCount="0.0" />
																			</Node>
																		</Node>
																		<Node id="88" score="N" recordCount="653.0">
																			<SimplePredicate field="D2CB" operator="greaterOrEqual" value="1.85000000000000E+001" />
																			<ScoreDistribution value="N" recordCount="628.0" />
																			<ScoreDistribution value="F" recordCount="25.0" />
																		</Node>
																	</Node>
																	<Node id="89" score="F" recordCount="3.0">
																		<SimplePredicate field="CA3TRetMtt" operator="greaterOrEqual" value="5.28565002441406E+002" />
																		<ScoreDistribution value="N" recordCount="0.0" />
																		<ScoreDistribution value="F" recordCount="3.0" />
																	</Node>
																</Node>
																<Node id="90" score="N" recordCount="414.0">
																	<SimplePredicate field="TauxImpNB_CPM" operator="greaterOrEqual" value="5.78705749511719E+001" />
																	<ScoreDistribution value="N" recordCount="349.0" />
																	<ScoreDistribution value="F" recordCount="65.0" />
																</Node>
															</Node>
														</Node>
													</Node>
												</Node>
												<Node id="91" score="N" recordCount="57777.0">
													<SimplePredicate field="D2CB" operator="greaterOrEqual" value="5.95000000000000E+001" />
													<ScoreDistribution value="N" recordCount="57357.0" />
													<ScoreDistribution value="F" recordCount="420.0" />
													<Node id="92" score="N" recordCount="55050.0">
														<SimplePredicate field="Montant" operator="lessThan" value="1.60024993896484E+002" />
														<ScoreDistribution value="N" recordCount="54682.0" />
														<ScoreDistribution value="F" recordCount="368.0" />
													</Node>
													<Node id="93" score="N" recordCount="2727.0">
														<SimplePredicate field="Montant" operator="greaterOrEqual" value="1.60024993896484E+002" />
														<ScoreDistribution value="N" recordCount="2675.0" />
														<ScoreDistribution value="F" recordCount="52.0" />
														<Node id="94" score="N" recordCount="12.0">
															<SimplePredicate field="DiffDateTr1" operator="lessThan" value="3.47222201526165E-004" />
															<ScoreDistribution value="N" recordCount="8.0" />
															<ScoreDistribution value="F" recordCount="4.0" />
															<Node id="95" score="F" recordCount="4.0">
																<SimplePredicate field="TauxImpNB_CPM" operator="lessThan" value="2.27257061004639E+001" />
																<ScoreDistribution value="N" recordCount="0.0" />
																<ScoreDistribution value="F" recordCount="4.0" />
															</Node>
															<Node id="96" score="N" recordCount="8.0">
																<SimplePredicate field="TauxImpNB_CPM" operator="greaterOrEqual" value="2.27257061004639E+001" />
																<ScoreDistribution value="N" recordCount="8.0" />
																<ScoreDistribution value="F" recordCount="0.0" />
															</Node>
														</Node>
														<Node id="97" score="N" recordCount="2715.0">
															<SimplePredicate field="DiffDateTr1" operator="greaterOrEqual" value="3.47222201526165E-004" />
															<ScoreDistribution value="N" recordCount="2667.0" />
															<ScoreDistribution value="F" recordCount="48.0" />
														</Node>
													</Node>
												</Node>
											</Node>
										</Node>
									</Node>
								</Node>
							</Node>
							<Node id="98" score="N" recordCount="5654155.0">
								<SimplePredicate field="D2CB" operator="greaterOrEqual" value="3.32500000000000E+002" />
								<ScoreDistribution value="N" recordCount="5651668.0" />
								<ScoreDistribution value="F" recordCount="2487.0" />
								<Node id="99" score="N" recordCount="11876.0">
									<SimplePredicate field="DiffDateTr3" operator="lessThan" value="2.07465267181396E+000" />
									<ScoreDistribution value="N" recordCount="11828.0" />
									<ScoreDistribution value="F" recordCount="48.0" />
									<Node id="100" score="N" recordCount="963.0">
										<SimplePredicate field="D2CB" operator="lessThan" value="4.79500000000000E+002" />
										<ScoreDistribution value="N" recordCount="938.0" />
										<ScoreDistribution value="F" recordCount="25.0" />
										<Node id="101" score="N" recordCount="916.0">
											<SimplePredicate field="CA3TRetMtt" operator="lessThan" value="3.44850006103516E+002" />
											<ScoreDistribution value="N" recordCount="900.0" />
											<ScoreDistribution value="F" recordCount="16.0" />
											<Node id="102" score="N" recordCount="864.0">
												<SimplePredicate field="TauxImpNb_RB" operator="lessThan" value="5.90868225097656E+001" />
												<ScoreDistribution value="N" recordCount="854.0" />
												<ScoreDistribution value="F" recordCount="10.0" />
												<Node id="103" score="N" recordCount="603.0">
													<SimplePredicate field="CA3TR" operator="lessThan" value="1.75720001220703E+002" />
													<ScoreDistribution value="N" recordCount="602.0" />
													<ScoreDistribution value="F" recordCount="1.0" />
												</Node>
												<Node id="104" score="N" recordCount="261.0">
													<SimplePredicate field="CA3TR" operator="greaterOrEqual" value="1.75720001220703E+002" />
													<ScoreDistribution value="N" recordCount="252.0" />
													<ScoreDistribution value="F" recordCount="9.0" />
													<Node id="105" score="N" recordCount="247.0">
														<SimplePredicate field="D2CB" operator="lessThan" value="4.70500000000000E+002" />
														<ScoreDistribution value="N" recordCount="242.0" />
														<ScoreDistribution value="F" recordCount="5.0" />
													</Node>
													<Node id="106" score="N" recordCount="14.0">
														<SimplePredicate field="D2CB" operator="greaterOrEqual" value="4.70500000000000E+002" />
														<ScoreDistribution value="N" recordCount="10.0" />
														<ScoreDistribution value="F" recordCount="4.0" />
														<Node id="107" score="F" recordCount="5.0">
															<SimplePredicate field="D2CB" operator="lessThan" value="4.74000000000000E+002" />
															<ScoreDistribution value="N" recordCount="1.0" />
															<ScoreDistribution value="F" recordCount="4.0" />
														</Node>
														<Node id="108" score="N" recordCount="9.0">
															<SimplePredicate field="D2CB" operator="greaterOrEqual" value="4.74000000000000E+002" />
															<ScoreDistribution value="N" recordCount="9.0" />
															<ScoreDistribution value="F" recordCount="0.0" />
														</Node>
													</Node>
												</Node>
											</Node>
											<Node id="109" score="N" recordCount="52.0">
												<SimplePredicate field="TauxImpNb_RB" operator="greaterOrEqual" value="5.90868225097656E+001" />
												<ScoreDistribution value="N" recordCount="46.0" />
												<ScoreDistribution value="F" recordCount="6.0" />
												<Node id="110" score="N" recordCount="43.0">
													<SimplePredicate field="TauxImpNB_CPM" operator="lessThan" value="6.03727951049805E+001" />
													<ScoreDistribution value="N" recordCount="41.0" />
													<ScoreDistribution value="F" recordCount="2.0" />
													<Node id="111" score="N" recordCount="40.0">
														<SimplePredicate field="DiffDateTr2" operator="lessThan" value="2.03888893127441E+000" />
														<ScoreDistribution value="N" recordCount="40.0" />
														<ScoreDistribution value="F" recordCount="0.0" />
													</Node>
													<Node id="112" score="F" recordCount="3.0">
														<SimplePredicate field="DiffDateTr2" operator="greaterOrEqual" value="2.03888893127441E+000" />
														<ScoreDistribution value="N" recordCount="1.0" />
														<ScoreDistribution value="F" recordCount="2.0" />
													</Node>
												</Node>
												<Node id="113" score="N" recordCount="9.0">
													<SimplePredicate field="TauxImpNB_CPM" operator="greaterOrEqual" value="6.03727951049805E+001" />
													<ScoreDistribution value="N" recordCount="5.0" />
													<ScoreDistribution value="F" recordCount="4.0" />
													<Node id="114" score="N" recordCount="3.0">
														<SimplePredicate field="Montant" operator="lessThan" value="1.46550006866455E+001" />
														<ScoreDistribution value="N" recordCount="3.0" />
														<ScoreDistribution value="F" recordCount="0.0" />
													</Node>
													<Node id="115" score="F" recordCount="6.0">
														<SimplePredicate field="Montant" operator="greaterOrEqual" value="1.46550006866455E+001" />
														<ScoreDistribution value="N" recordCount="2.0" />
														<ScoreDistribution value="F" recordCount="4.0" />
														<Node id="116" score="F" recordCount="3.0">
															<SimplePredicate field="TauxImpNb_RB" operator="lessThan" value="6.65668563842773E+001" />
															<ScoreDistribution value="N" recordCount="0.0" />
															<ScoreDistribution value="F" recordCount="3.0" />
														</Node>
														<Node id="117" score="N" recordCount="3.0">
															<SimplePredicate field="TauxImpNb_RB" operator="greaterOrEqual" value="6.65668563842773E+001" />
															<ScoreDistribution value="N" recordCount="2.0" />
															<ScoreDistribution value="F" recordCount="1.0" />
														</Node>
													</Node>
												</Node>
											</Node>
										</Node>
										<Node id="118" score="N" recordCount="47.0">
											<SimplePredicate field="CA3TRetMtt" operator="greaterOrEqual" value="3.44850006103516E+002" />
											<ScoreDistribution value="N" recordCount="38.0" />
											<ScoreDistribution value="F" recordCount="9.0" />
											<Node id="119" score="F" recordCount="14.0">
												<SimplePredicate field="Heure" operator="lessThan" value="4.16700000000000E+004" />
												<ScoreDistribution value="N" recordCount="5.0" />
												<ScoreDistribution value="F" recordCount="9.0" />
												<Node id="120" score="F" recordCount="9.0">
													<SimplePredicate field="TauxImpNb_RB" operator="lessThan" value="3.64996719360352E+001" />
													<ScoreDistribution value="N" recordCount="0.0" />
													<ScoreDistribution value="F" recordCount="9.0" />
												</Node>
												<Node id="121" score="N" recordCount="5.0">
													<SimplePredicate field="TauxImpNb_RB" operator="greaterOrEqual" value="3.64996719360352E+001" />
													<ScoreDistribution value="N" recordCount="5.0" />
													<ScoreDistribution value="F" recordCount="0.0" />
												</Node>
											</Node>
											<Node id="122" score="N" recordCount="33.0">
												<SimplePredicate field="Heure" operator="greaterOrEqual" value="4.16700000000000E+004" />
												<ScoreDistribution value="N" recordCount="33.0" />
												<ScoreDistribution value="F" recordCount="0.0" />
											</Node>
										</Node>
									</Node>
									<Node id="123" score="N" recordCount="10913.0">
										<SimplePredicate field="D2CB" operator="greaterOrEqual" value="4.79500000000000E+002" />
										<ScoreDistribution value="N" recordCount="10890.0" />
										<ScoreDistribution value="F" recordCount="23.0" />
										<Node id="124" score="N" recordCount="9395.0">
											<SimplePredicate field="CA3TRetMtt" operator="lessThan" value="2.66450012207031E+002" />
											<ScoreDistribution value="N" recordCount="9389.0" />
											<ScoreDistribution value="F" recordCount="6.0" />
										</Node>
										<Node id="125" score="N" recordCount="1518.0">
											<SimplePredicate field="CA3TRetMtt" operator="greaterOrEqual" value="2.66450012207031E+002" />
											<ScoreDistribution value="N" recordCount="1501.0" />
											<ScoreDistribution value="F" recordCount="17.0" />
											<Node id="126" score="N" recordCount="935.0">
												<SimplePredicate field="TauxImpNB_CPM" operator="lessThan" value="3.78529586791992E+001" />
												<ScoreDistribution value="N" recordCount="933.0" />
												<ScoreDistribution value="F" recordCount="2.0" />
											</Node>
											<Node id="127" score="N" recordCount="583.0">
												<SimplePredicate field="TauxImpNB_CPM" operator="greaterOrEqual" value="3.78529586791992E+001" />
												<ScoreDistribution value="N" recordCount="568.0" />
												<ScoreDistribution value="F" recordCount="15.0" />
												<Node id="128" score="N" recordCount="520.0">
													<SimplePredicate field="D2CB" operator="lessThan" value="6.82500000000000E+002" />
													<ScoreDistribution value="N" recordCount="513.0" />
													<ScoreDistribution value="F" recordCount="7.0" />
												</Node>
												<Node id="129" score="N" recordCount="63.0">
													<SimplePredicate field="D2CB" operator="greaterOrEqual" value="6.82500000000000E+002" />
													<ScoreDistribution value="N" recordCount="55.0" />
													<ScoreDistribution value="F" recordCount="8.0" />
													<Node id="130" score="N" recordCount="59.0">
														<SimplePredicate field="EcartNumCheq" operator="lessThan" value="2.81870050000000E+006" />
														<ScoreDistribution value="N" recordCount="55.0" />
														<ScoreDistribution value="F" recordCount="4.0" />
														<Node id="131" score="N" recordCount="12.0">
															<SimplePredicate field="D2CB" operator="lessThan" value="6.87500000000000E+002" />
															<ScoreDistribution value="N" recordCount="8.0" />
															<ScoreDistribution value="F" recordCount="4.0" />
															<Node id="132" score="N" recordCount="8.0">
																<SimplePredicate field="Montant" operator="lessThan" value="8.38750000000000E+001" />
																<ScoreDistribution value="N" recordCount="8.0" />
																<ScoreDistribution value="F" recordCount="0.0" />
															</Node>
															<Node id="133" score="F" recordCount="4.0">
																<SimplePredicate field="Montant" operator="greaterOrEqual" value="8.38750000000000E+001" />
																<ScoreDistribution value="N" recordCount="0.0" />
																<ScoreDistribution value="F" recordCount="4.0" />
															</Node>
														</Node>
														<Node id="134" score="N" recordCount="47.0">
															<SimplePredicate field="D2CB" operator="greaterOrEqual" value="6.87500000000000E+002" />
															<ScoreDistribution value="N" recordCount="47.0" />
															<ScoreDistribution value="F" recordCount="0.0" />
														</Node>
													</Node>
													<Node id="135" score="F" recordCount="4.0">
														<SimplePredicate field="EcartNumCheq" operator="greaterOrEqual" value="2.81870050000000E+006" />
														<ScoreDistribution value="N" recordCount="0.0" />
														<ScoreDistribution value="F" recordCount="4.0" />
													</Node>
												</Node>
											</Node>
										</Node>
									</Node>
								</Node>
								<Node id="136" score="N" recordCount="5642279.0">
									<SimplePredicate field="DiffDateTr3" operator="greaterOrEqual" value="2.07465267181396E+000" />
									<ScoreDistribution value="N" recordCount="5639840.0" />
									<ScoreDistribution value="F" recordCount="2439.0" />
								</Node>
							</Node>
						</Node>
						<Node id="137" score="N" recordCount="58510.0">
							<SimplePredicate field="Montant" operator="greaterOrEqual" value="3.95864990234375E+002" />
							<ScoreDistribution value="N" recordCount="57803.0" />
							<ScoreDistribution value="F" recordCount="707.0" />
							<Node id="138" score="N" recordCount="57710.0">
								<SimplePredicate field="NbrMagasin3J" operator="lessThan" value="1.50000000000000E+000" />
								<ScoreDistribution value="N" recordCount="57054.0" />
								<ScoreDistribution value="F" recordCount="656.0" />
								<Node id="139" score="N" recordCount="57374.0">
									<SimplePredicate field="EcartNumCheq" operator="lessThan" value="3.50000000000000E+000" />
									<ScoreDistribution value="N" recordCount="56736.0" />
									<ScoreDistribution value="F" recordCount="638.0" />
									<Node id="140" score="N" recordCount="22637.0">
										<SimplePredicate field="D2CB" operator="lessThan" value="6.45000000000000E+001" />
										<ScoreDistribution value="N" recordCount="22113.0" />
										<ScoreDistribution value="F" recordCount="524.0" />
										<Node id="141" score="F" recordCount="232.0">
											<SimplePredicate field="VerifianceCPT1" operator="lessThan" value="5.00000000000000E-001" />
											<ScoreDistribution value="N" recordCount="40.0" />
											<ScoreDistribution value="F" recordCount="192.0" />
											<Node id="142" score="N" recordCount="6.0">
												<SimplePredicate field="Heure" operator="lessThan" value="3.26400000000000E+004" />
												<ScoreDistribution value="N" recordCount="6.0" />
												<ScoreDistribution value="F" recordCount="0.0" />
											</Node>
											<Node id="143" score="F" recordCount="226.0">
												<SimplePredicate field="Heure" operator="greaterOrEqual" value="3.26400000000000E+004" />
												<ScoreDistribution value="N" recordCount="34.0" />
												<ScoreDistribution value="F" recordCount="192.0" />
												<Node id="144" score="F" recordCount="222.0">
													<SimplePredicate field="TauxImpNb_RB" operator="lessThan" value="1.18766760253906E+003" />
													<ScoreDistribution value="N" recordCount="30.0" />
													<ScoreDistribution value="F" recordCount="192.0" />
													<Node id="145" score="F" recordCount="212.0">
														<SimplePredicate field="D2CB" operator="lessThan" value="2.80000000000000E+001" />
														<ScoreDistribution value="N" recordCount="23.0" />
														<ScoreDistribution value="F" recordCount="189.0" />
														<Node id="146" score="N" recordCount="3.0">
															<SimplePredicate field="TauxImpNB_CPM" operator="lessThan" value="7.41281890869141E+000" />
															<ScoreDistribution value="N" recordCount="3.0" />
															<ScoreDistribution value="F" recordCount="0.0" />
														</Node>
														<Node id="147" score="F" recordCount="209.0">
															<SimplePredicate field="TauxImpNB_CPM" operator="greaterOrEqual" value="7.41281890869141E+000" />
															<ScoreDistribution value="N" recordCount="20.0" />
															<ScoreDistribution value="F" recordCount="189.0" />
														</Node>
													</Node>
													<Node id="148" score="N" recordCount="10.0">
														<SimplePredicate field="D2CB" operator="greaterOrEqual" value="2.80000000000000E+001" />
														<ScoreDistribution value="N" recordCount="7.0" />
														<ScoreDistribution value="F" recordCount="3.0" />
														<Node id="149" score="N" recordCount="6.0">
															<SimplePredicate field="Montant" operator="lessThan" value="5.86169982910156E+002" />
															<ScoreDistribution value="N" recordCount="6.0" />
															<ScoreDistribution value="F" recordCount="0.0" />
														</Node>
														<Node id="150" score="F" recordCount="4.0">
															<SimplePredicate field="Montant" operator="greaterOrEqual" value="5.86169982910156E+002" />
															<ScoreDistribution value="N" recordCount="1.0" />
															<ScoreDistribution value="F" recordCount="3.0" />
														</Node>
													</Node>
												</Node>
												<Node id="151" score="N" recordCount="4.0">
													<SimplePredicate field="TauxImpNb_RB" operator="greaterOrEqual" value="1.18766760253906E+003" />
													<ScoreDistribution value="N" recordCount="4.0" />
													<ScoreDistribution value="F" recordCount="0.0" />
												</Node>
											</Node>
										</Node>
										<Node id="152" score="N" recordCount="22405.0">
											<SimplePredicate field="VerifianceCPT1" operator="greaterOrEqual" value="5.00000000000000E-001" />
											<ScoreDistribution value="N" recordCount="22073.0" />
											<ScoreDistribution value="F" recordCount="332.0" />
											<Node id="153" score="N" recordCount="20528.0">
												<SimplePredicate field="Montant" operator="lessThan" value="1.03043505859375E+003" />
												<ScoreDistribution value="N" recordCount="20264.0" />
												<ScoreDistribution value="F" recordCount="264.0" />
											</Node>
											<Node id="154" score="N" recordCount="1877.0">
												<SimplePredicate field="Montant" operator="greaterOrEqual" value="1.03043505859375E+003" />
												<ScoreDistribution value="N" recordCount="1809.0" />
												<ScoreDistribution value="F" recordCount="68.0" />
												<Node id="155" score="N" recordCount="1544.0">
													<SimplePredicate field="TauxImpNB_CPM" operator="lessThan" value="4.57551269531250E+001" />
													<ScoreDistribution value="N" recordCount="1509.0" />
													<ScoreDistribution value="F" recordCount="35.0" />
												</Node>
												<Node id="156" score="N" recordCount="333.0">
													<SimplePredicate field="TauxImpNB_CPM" operator="greaterOrEqual" value="4.57551269531250E+001" />
													<ScoreDistribution value="N" recordCount="300.0" />
													<ScoreDistribution value="F" recordCount="33.0" />
													<Node id="157" score="N" recordCount="324.0">
														<SimplePredicate field="TauxImpNB_CPM" operator="lessThan" value="8.07619400024414E+001" />
														<ScoreDistribution value="N" recordCount="296.0" />
														<ScoreDistribution value="F" recordCount="28.0" />
													</Node>
													<Node id="158" score="F" recordCount="9.0">
														<SimplePredicate field="TauxImpNB_CPM" operator="greaterOrEqual" value="8.07619400024414E+001" />
														<ScoreDistribution value="N" recordCount="4.0" />
														<ScoreDistribution value="F" recordCount="5.0" />
														<Node id="159" score="N" recordCount="6.0">
															<SimplePredicate field="Heure" operator="lessThan" value="6.98100000000000E+004" />
															<ScoreDistribution value="N" recordCount="4.0" />
															<ScoreDistribution value="F" recordCount="2.0" />
														</Node>
														<Node id="160" score="F" recordCount="3.0">
															<SimplePredicate field="Heure" operator="greaterOrEqual" value="6.98100000000000E+004" />
															<ScoreDistribution value="N" recordCount="0.0" />
															<ScoreDistribution value="F" recordCount="3.0" />
														</Node>
													</Node>
												</Node>
											</Node>
										</Node>
									</Node>
									<Node id="161" score="N" recordCount="34737.0">
										<SimplePredicate field="D2CB" operator="greaterOrEqual" value="6.45000000000000E+001" />
										<ScoreDistribution value="N" recordCount="34623.0" />
										<ScoreDistribution value="F" recordCount="114.0" />
									</Node>
								</Node>
								<Node id="162" score="N" recordCount="336.0">
									<SimplePredicate field="EcartNumCheq" operator="greaterOrEqual" value="3.50000000000000E+000" />
									<ScoreDistribution value="N" recordCount="318.0" />
									<ScoreDistribution value="F" recordCount="18.0" />
									<Node id="163" score="F" recordCount="13.0">
										<SimplePredicate field="DiffDateTr3" operator="lessThan" value="3.48611116409302E+000" />
										<ScoreDistribution value="N" recordCount="5.0" />
										<ScoreDistribution value="F" recordCount="8.0" />
										<Node id="164" score="F" recordCount="7.0">
											<SimplePredicate field="D2CB" operator="lessThan" value="4.87000000000000E+002" />
											<ScoreDistribution value="N" recordCount="0.0" />
											<ScoreDistribution value="F" recordCount="7.0" />
										</Node>
										<Node id="165" score="N" recordCount="6.0">
											<SimplePredicate field="D2CB" operator="greaterOrEqual" value="4.87000000000000E+002" />
											<ScoreDistribution value="N" recordCount="5.0" />
											<ScoreDistribution value="F" recordCount="1.0" />
										</Node>
									</Node>
									<Node id="166" score="N" recordCount="323.0">
										<SimplePredicate field="DiffDateTr3" operator="greaterOrEqual" value="3.48611116409302E+000" />
										<ScoreDistribution value="N" recordCount="313.0" />
										<ScoreDistribution value="F" recordCount="10.0" />
									</Node>
								</Node>
							</Node>
							<Node id="167" score="N" recordCount="800.0">
								<SimplePredicate field="NbrMagasin3J" operator="greaterOrEqual" value="1.50000000000000E+000" />
								<ScoreDistribution value="N" recordCount="749.0" />
								<ScoreDistribution value="F" recordCount="51.0" />
								<Node id="168" score="N" recordCount="764.0">
									<SimplePredicate field="DiffDateTr3" operator="lessThan" value="4.50000000000000E+000" />
									<ScoreDistribution value="N" recordCount="726.0" />
									<ScoreDistribution value="F" recordCount="38.0" />
									<Node id="169" score="N" recordCount="15.0">
										<SimplePredicate field="DiffDateTr3" operator="lessThan" value="2.48125004768372E+000" />
										<ScoreDistribution value="N" recordCount="9.0" />
										<ScoreDistribution value="F" recordCount="6.0" />
										<Node id="170" score="N" recordCount="9.0">
											<SimplePredicate field="CA3TR" operator="lessThan" value="1.59990005493164E+002" />
											<ScoreDistribution value="N" recordCount="9.0" />
											<ScoreDistribution value="F" recordCount="0.0" />
										</Node>
										<Node id="171" score="F" recordCount="6.0">
											<SimplePredicate field="CA3TR" operator="greaterOrEqual" value="1.59990005493164E+002" />
											<ScoreDistribution value="N" recordCount="0.0" />
											<ScoreDistribution value="F" recordCount="6.0" />
										</Node>
									</Node>
									<Node id="172" score="N" recordCount="749.0">
										<SimplePredicate field="DiffDateTr3" operator="greaterOrEqual" value="2.48125004768372E+000" />
										<ScoreDistribution value="N" recordCount="717.0" />
										<ScoreDistribution value="F" recordCount="32.0" />
										<Node id="173" score="N" recordCount="522.0">
											<SimplePredicate field="CA3TRetMtt" operator="lessThan" value="6.53359985351563E+002" />
											<ScoreDistribution value="N" recordCount="516.0" />
											<ScoreDistribution value="F" recordCount="6.0" />
										</Node>
										<Node id="174" score="N" recordCount="227.0">
											<SimplePredicate field="CA3TRetMtt" operator="greaterOrEqual" value="6.53359985351563E+002" />
											<ScoreDistribution value="N" recordCount="201.0" />
											<ScoreDistribution value="F" recordCount="26.0" />
											<Node id="175" score="F" recordCount="8.0">
												<SimplePredicate field="D2CB" operator="lessThan" value="1.16500000000000E+002" />
												<ScoreDistribution value="N" recordCount="3.0" />
												<ScoreDistribution value="F" recordCount="5.0" />
											</Node>
											<Node id="176" score="N" recordCount="219.0">
												<SimplePredicate field="D2CB" operator="greaterOrEqual" value="1.16500000000000E+002" />
												<ScoreDistribution value="N" recordCount="198.0" />
												<ScoreDistribution value="F" recordCount="21.0" />
											</Node>
										</Node>
									</Node>
								</Node>
								<Node id="177" score="N" recordCount="36.0">
									<SimplePredicate field="DiffDateTr3" operator="greaterOrEqual" value="4.50000000000000E+000" />
									<ScoreDistribution value="N" recordCount="23.0" />
									<ScoreDistribution value="F" recordCount="13.0" />
									<Node id="178" score="F" recordCount="12.0">
										<SimplePredicate field="VerifianceCPT1" operator="lessThan" value="5.00000000000000E-001" />
										<ScoreDistribution value="N" recordCount="0.0" />
										<ScoreDistribution value="F" recordCount="12.0" />
									</Node>
									<Node id="179" score="N" recordCount="24.0">
										<SimplePredicate field="VerifianceCPT1" operator="greaterOrEqual" value="5.00000000000000E-001" />
										<ScoreDistribution value="N" recordCount="23.0" />
										<ScoreDistribution value="F" recordCount="1.0" />
									</Node>
								</Node>
							</Node>
						</Node>
					</Node>
					<Node id="180" score="N" recordCount="88249.0">
						<SimplePredicate field="VerifianceCPT2" operator="greaterOrEqual" value="1.50000000000000E+000" />
						<ScoreDistribution value="N" recordCount="86511.0" />
						<ScoreDistribution value="F" recordCount="1738.0" />
						<Node id="181" score="N" recordCount="82407.0">
							<SimplePredicate field="Montant" operator="lessThan" value="3.38994995117188E+002" />
							<ScoreDistribution value="N" recordCount="81235.0" />
							<ScoreDistribution value="F" recordCount="1172.0" />
							<Node id="182" score="N" recordCount="30339.0">
								<SimplePredicate field="D2CB" operator="lessThan" value="1.38500000000000E+002" />
								<ScoreDistribution value="N" recordCount="29414.0" />
								<ScoreDistribution value="F" recordCount="925.0" />
								<Node id="183" score="N" recordCount="29513.0">
									<SimplePredicate field="VerifianceCPT1" operator="lessThan" value="2.50000000000000E+000" />
									<ScoreDistribution value="N" recordCount="28688.0" />
									<ScoreDistribution value="F" recordCount="825.0" />
									<Node id="184" score="N" recordCount="624.0">
										<SimplePredicate field="DiffDateTr2" operator="lessThan" value="2.99131941795349E+000" />
										<ScoreDistribution value="N" recordCount="562.0" />
										<ScoreDistribution value="F" recordCount="62.0" />
									</Node>
									<Node id="185" score="N" recordCount="28889.0">
										<SimplePredicate field="DiffDateTr2" operator="greaterOrEqual" value="2.99131941795349E+000" />
										<ScoreDistribution value="N" recordCount="28126.0" />
										<ScoreDistribution value="F" recordCount="763.0" />
										<Node id="186" score="N" recordCount="26264.0">
											<SimplePredicate field="VerifianceCPT2" operator="lessThan" value="2.50000000000000E+000" />
											<ScoreDistribution value="N" recordCount="25684.0" />
											<ScoreDistribution value="F" recordCount="580.0" />
											<Node id="187" score="N" recordCount="12629.0">
												<SimplePredicate field="CA3TRetMtt" operator="lessThan" value="1.48235000610352E+002" />
												<ScoreDistribution value="N" recordCount="12460.0" />
												<ScoreDistribution value="F" recordCount="169.0" />
												<Node id="188" score="N" recordCount="12620.0">
													<SimplePredicate field="CA3TR" operator="lessThan" value="7.76600036621094E+001" />
													<ScoreDistribution value="N" recordCount="12455.0" />
													<ScoreDistribution value="F" recordCount="165.0" />
													<Node id="189" score="N" recordCount="1107.0">
														<SimplePredicate field="TauxImpNb_RB" operator="lessThan" value="1.37211198806763E+001" />
														<ScoreDistribution value="N" recordCount="1106.0" />
														<ScoreDistribution value="F" recordCount="1.0" />
													</Node>
													<Node id="190" score="N" recordCount="11513.0">
														<SimplePredicate field="TauxImpNb_RB" operator="greaterOrEqual" value="1.37211198806763E+001" />
														<ScoreDistribution value="N" recordCount="11349.0" />
														<ScoreDistribution value="F" recordCount="164.0" />
														<Node id="191" score="N" recordCount="11509.0">
															<SimplePredicate field="TauxImpNb_RB" operator="lessThan" value="6.85002563476563E+002" />
															<ScoreDistribution value="N" recordCount="11348.0" />
															<ScoreDistribution value="F" recordCount="161.0" />
														</Node>
														<Node id="192" score="F" recordCount="4.0">
															<SimplePredicate field="TauxImpNb_RB" operator="greaterOrEqual" value="6.85002563476563E+002" />
															<ScoreDistribution value="N" recordCount="1.0" />
															<ScoreDistribution value="F" recordCount="3.0" />
														</Node>
													</Node>
												</Node>
												<Node id="193" score="N" recordCount="9.0">
													<SimplePredicate field="CA3TR" operator="greaterOrEqual" value="7.76600036621094E+001" />
													<ScoreDistribution value="N" recordCount="5.0" />
													<ScoreDistribution value="F" recordCount="4.0" />
													<Node id="194" score="N" recordCount="3.0">
														<SimplePredicate field="Montant" operator="lessThan" value="3.89049987792969E+001" />
														<ScoreDistribution value="N" recordCount="3.0" />
														<ScoreDistribution value="F" recordCount="0.0" />
													</Node>
													<Node id="195" score="F" recordCount="6.0">
														<SimplePredicate field="Montant" operator="greaterOrEqual" value="3.89049987792969E+001" />
														<ScoreDistribution value="N" recordCount="2.0" />
														<ScoreDistribution value="F" recordCount="4.0" />
													</Node>
												</Node>
											</Node>
											<Node id="196" score="N" recordCount="13635.0">
												<SimplePredicate field="CA3TRetMtt" operator="greaterOrEqual" value="1.48235000610352E+002" />
												<ScoreDistribution value="N" recordCount="13224.0" />
												<ScoreDistribution value="F" recordCount="411.0" />
												<Node id="197" score="N" recordCount="10414.0">
													<SimplePredicate field="TauxImpNB_CPM" operator="lessThan" value="4.35120315551758E+001" />
													<ScoreDistribution value="N" recordCount="10167.0" />
													<ScoreDistribution value="F" recordCount="247.0" />
													<Node id="198" score="N" recordCount="8397.0">
														<SimplePredicate field="CA3TRetMtt" operator="lessThan" value="2.92395019531250E+002" />
														<ScoreDistribution value="N" recordCount="8237.0" />
														<ScoreDistribution value="F" recordCount="160.0" />
													</Node>
													<Node id="199" score="N" recordCount="2017.0">
														<SimplePredicate field="CA3TRetMtt" operator="greaterOrEqual" value="2.92395019531250E+002" />
														<ScoreDistribution value="N" recordCount="1930.0" />
														<ScoreDistribution value="F" recordCount="87.0" />
														<Node id="200" score="N" recordCount="788.0">
															<SimplePredicate field="TauxImpNb_RB" operator="lessThan" value="2.58826255798340E+001" />
															<ScoreDistribution value="N" recordCount="771.0" />
															<ScoreDistribution value="F" recordCount="17.0" />
															<Node id="201" score="N" recordCount="774.0">
																<SimplePredicate field="EcartNumCheq" operator="lessThan" value="6.50000000000000E+000" />
																<ScoreDistribution value="N" recordCount="761.0" />
																<ScoreDistribution value="F" recordCount="13.0" />
															</Node>
															<Node id="202" score="N" recordCount="14.0">
																<SimplePredicate field="EcartNumCheq" operator="greaterOrEqual" value="6.50000000000000E+000" />
																<ScoreDistribution value="N" recordCount="10.0" />
																<ScoreDistribution value="F" recordCount="4.0" />
																<Node id="203" score="F" recordCount="7.0">
																	<SimplePredicate field="Heure" operator="lessThan" value="5.11800000000000E+004" />
																	<ScoreDistribution value="N" recordCount="3.0" />
																	<ScoreDistribution value="F" recordCount="4.0" />
																	<Node id="204" score="F" recordCount="3.0">
																		<SimplePredicate field="CA3TR" operator="lessThan" value="1.74714996337891E+002" />
																		<ScoreDistribution value="N" recordCount="0.0" />
																		<ScoreDistribution value="F" recordCount="3.0" />
																	</Node>
																	<Node id="205" score="N" recordCount="4.0">
																		<SimplePredicate field="CA3TR" operator="greaterOrEqual" value="1.74714996337891E+002" />
																		<ScoreDistribution value="N" recordCount="3.0" />
																		<ScoreDistribution value="F" recordCount="1.0" />
																	</Node>
																</Node>
																<Node id="206" score="N" recordCount="7.0">
																	<SimplePredicate field="Heure" operator="greaterOrEqual" value="5.11800000000000E+004" />
																	<ScoreDistribution value="N" recordCount="7.0" />
																	<ScoreDistribution value="F" recordCount="0.0" />
																</Node>
															</Node>
														</Node>
														<Node id="207" score="N" recordCount="1229.0">
															<SimplePredicate field="TauxImpNb_RB" operator="greaterOrEqual" value="2.58826255798340E+001" />
															<ScoreDistribution value="N" recordCount="1159.0" />
															<ScoreDistribution value="F" recordCount="70.0" />
														</Node>
													</Node>
												</Node>
												<Node id="208" score="N" recordCount="3221.0">
													<SimplePredicate field="TauxImpNB_CPM" operator="greaterOrEqual" value="4.35120315551758E+001" />
													<ScoreDistribution value="N" recordCount="3057.0" />
													<ScoreDistribution value="F" recordCount="164.0" />
													<Node id="209" score="N" recordCount="3165.0">
														<SimplePredicate field="TauxImpNb_RB" operator="lessThan" value="1.36930755615234E+002" />
														<ScoreDistribution value="N" recordCount="3014.0" />
														<ScoreDistribution value="F" recordCount="151.0" />
													</Node>
													<Node id="210" score="N" recordCount="56.0">
														<SimplePredicate field="TauxImpNb_RB" operator="greaterOrEqual" value="1.36930755615234E+002" />
														<ScoreDistribution value="N" recordCount="43.0" />
														<ScoreDistribution value="F" recordCount="13.0" />
														<Node id="211" score="F" recordCount="4.0">
															<SimplePredicate field="CA3TRetMtt" operator="lessThan" value="1.50394989013672E+002" />
															<ScoreDistribution value="N" recordCount="0.0" />
															<ScoreDistribution value="F" recordCount="4.0" />
														</Node>
														<Node id="212" score="N" recordCount="52.0">
															<SimplePredicate field="CA3TRetMtt" operator="greaterOrEqual" value="1.50394989013672E+002" />
															<ScoreDistribution value="N" recordCount="43.0" />
															<ScoreDistribution value="F" recordCount="9.0" />
															<Node id="213" score="N" recordCount="43.0">
																<SimplePredicate field="Heure" operator="lessThan" value="6.81000000000000E+004" />
																<ScoreDistribution value="N" recordCount="39.0" />
																<ScoreDistribution value="F" recordCount="4.0" />
															</Node>
															<Node id="214" score="F" recordCount="9.0">
																<SimplePredicate field="Heure" operator="greaterOrEqual" value="6.81000000000000E+004" />
																<ScoreDistribution value="N" recordCount="4.0" />
																<ScoreDistribution value="F" recordCount="5.0" />
															</Node>
														</Node>
													</Node>
												</Node>
											</Node>
										</Node>
										<Node id="215" score="N" recordCount="2625.0">
											<SimplePredicate field="VerifianceCPT2" operator="greaterOrEqual" value="2.50000000000000E+000" />
											<ScoreDistribution value="N" recordCount="2442.0" />
											<ScoreDistribution value="F" recordCount="183.0" />
											<Node id="216" score="N" recordCount="2224.0">
												<SimplePredicate field="Montant" operator="lessThan" value="2.19445007324219E+002" />
												<ScoreDistribution value="N" recordCount="2098.0" />
												<ScoreDistribution value="F" recordCount="126.0" />
											</Node>
											<Node id="217" score="N" recordCount="401.0">
												<SimplePredicate field="Montant" operator="greaterOrEqual" value="2.19445007324219E+002" />
												<ScoreDistribution value="N" recordCount="344.0" />
												<ScoreDistribution value="F" recordCount="57.0" />
												<Node id="218" score="N" recordCount="325.0">
													<SimplePredicate field="Heure" operator="lessThan" value="7.00200000000000E+004" />
													<ScoreDistribution value="N" recordCount="270.0" />
													<ScoreDistribution value="F" recordCount="55.0" />
													<Node id="219" score="N" recordCount="138.0">
														<SimplePredicate field="TauxImpNb_RB" operator="lessThan" value="3.32731590270996E+001" />
														<ScoreDistribution value="N" recordCount="129.0" />
														<ScoreDistribution value="F" recordCount="9.0" />
														<Node id="220" score="N" recordCount="12.0">
															<SimplePredicate field="TauxImpNB_CPM" operator="lessThan" value="1.89162445068359E+001" />
															<ScoreDistribution value="N" recordCount="7.0" />
															<ScoreDistribution value="F" recordCount="5.0" />
															<Node id="221" score="N" recordCount="4.0">
																<SimplePredicate field="TauxImpNb_RB" operator="lessThan" value="9.55013084411621E+000" />
																<ScoreDistribution value="N" recordCount="4.0" />
																<ScoreDistribution value="F" recordCount="0.0" />
															</Node>
															<Node id="222" score="F" recordCount="8.0">
																<SimplePredicate field="TauxImpNb_RB" operator="greaterOrEqual" value="9.55013084411621E+000" />
																<ScoreDistribution value="N" recordCount="3.0" />
																<ScoreDistribution value="F" recordCount="5.0" />
															</Node>
														</Node>
														<Node id="223" score="N" recordCount="126.0">
															<SimplePredicate field="TauxImpNB_CPM" operator="greaterOrEqual" value="1.89162445068359E+001" />
															<ScoreDistribution value="N" recordCount="122.0" />
															<ScoreDistribution value="F" recordCount="4.0" />
														</Node>
													</Node>
													<Node id="224" score="N" recordCount="187.0">
														<SimplePredicate field="TauxImpNb_RB" operator="greaterOrEqual" value="3.32731590270996E+001" />
														<ScoreDistribution value="N" recordCount="141.0" />
														<ScoreDistribution value="F" recordCount="46.0" />
														<Node id="225" score="F" recordCount="20.0">
															<SimplePredicate field="DiffDateTr1" operator="lessThan" value="8.04513931274414E-001" />
															<ScoreDistribution value="N" recordCount="8.0" />
															<ScoreDistribution value="F" recordCount="12.0" />
															<Node id="226" score="N" recordCount="15.0">
																<SimplePredicate field="TauxImpNb_RB" operator="lessThan" value="5.54973831176758E+001" />
																<ScoreDistribution value="N" recordCount="8.0" />
																<ScoreDistribution value="F" recordCount="7.0" />
																<Node id="227" score="N" recordCount="12.0">
																	<SimplePredicate field="EcartNumCheq" operator="lessThan" value="1.50000000000000E+000" />
																	<ScoreDistribution value="N" recordCount="8.0" />
																	<ScoreDistribution value="F" recordCount="4.0" />
																	<Node id="228" score="F" recordCount="6.0">
																		<SimplePredicate field="TauxImpNb_RB" operator="lessThan" value="3.95702209472656E+001" />
																		<ScoreDistribution value="N" recordCount="2.0" />
																		<ScoreDistribution value="F" recordCount="4.0" />
																		<Node id="229" score="N" recordCount="3.0">
																			<SimplePredicate field="Montant" operator="lessThan" value="2.87924987792969E+002" />
																			<ScoreDistribution value="N" recordCount="2.0" />
																			<ScoreDistribution value="F" recordCount="1.0" />
																		</Node>
																		<Node id="230" score="F" recordCount="3.0">
																			<SimplePredicate field="Montant" operator="greaterOrEqual" value="2.87924987792969E+002" />
																			<ScoreDistribution value="N" recordCount="0.0" />
																			<ScoreDistribution value="F" recordCount="3.0" />
																		</Node>
																	</Node>
																	<Node id="231" score="N" recordCount="6.0">
																		<SimplePredicate field="TauxImpNb_RB" operator="greaterOrEqual" value="3.95702209472656E+001" />
																		<ScoreDistribution value="N" recordCount="6.0" />
																		<ScoreDistribution value="F" recordCount="0.0" />
																	</Node>
																</Node>
																<Node id="232" score="F" recordCount="3.0">
																	<SimplePredicate field="EcartNumCheq" operator="greaterOrEqual" value="1.50000000000000E+000" />
																	<ScoreDistribution value="N" recordCount="0.0" />
																	<ScoreDistribution value="F" recordCount="3.0" />
																</Node>
															</Node>
															<Node id="233" score="F" recordCount="5.0">
																<SimplePredicate field="TauxImpNb_RB" operator="greaterOrEqual" value="5.54973831176758E+001" />
																<ScoreDistribution value="N" recordCount="0.0" />
																<ScoreDistribution value="F" recordCount="5.0" />
															</Node>
														</Node>
														<Node id="234" score="N" recordCount="167.0">
															<SimplePredicate field="DiffDateTr1" operator="greaterOrEqual" value="8.04513931274414E-001" />
															<ScoreDistribution value="N" recordCount="133.0" />
															<ScoreDistribution value="F" recordCount="34.0" />
														</Node>
													</Node>
												</Node>
												<Node id="235" score="N" recordCount="76.0">
													<SimplePredicate field="Heure" operator="greaterOrEqual" value="7.00200000000000E+004" />
													<ScoreDistribution value="N" recordCount="74.0" />
													<ScoreDistribution value="F" recordCount="2.0" />
													<Node id="236" score="N" recordCount="70.0">
														<SimplePredicate field="TauxImpNB_CPM" operator="lessThan" value="7.52778778076172E+001" />
														<ScoreDistribution value="N" recordCount="70.0" />
														<ScoreDistribution value="F" recordCount="0.0" />
													</Node>
													<Node id="237" score="N" recordCount="6.0">
														<SimplePredicate field="TauxImpNB_CPM" operator="greaterOrEqual" value="7.52778778076172E+001" />
														<ScoreDistribution value="N" recordCount="4.0" />
														<ScoreDistribution value="F" recordCount="2.0" />
														<Node id="238" score="N" recordCount="3.0">
															<SimplePredicate field="Montant" operator="lessThan" value="2.83309997558594E+002" />
															<ScoreDistribution value="N" recordCount="3.0" />
															<ScoreDistribution value="F" recordCount="0.0" />
														</Node>
														<Node id="239" score="F" recordCount="3.0">
															<SimplePredicate field="Montant" operator="greaterOrEqual" value="2.83309997558594E+002" />
															<ScoreDistribution value="N" recordCount="1.0" />
															<ScoreDistribution value="F" recordCount="2.0" />
														</Node>
													</Node>
												</Node>
											</Node>
										</Node>
									</Node>
								</Node>
								<Node id="240" score="N" recordCount="826.0">
									<SimplePredicate field="VerifianceCPT1" operator="greaterOrEqual" value="2.50000000000000E+000" />
									<ScoreDistribution value="N" recordCount="726.0" />
									<ScoreDistribution value="F" recordCount="100.0" />
								</Node>
							</Node>
							<Node id="241" score="N" recordCount="52068.0">
								<SimplePredicate field="D2CB" operator="greaterOrEqual" value="1.38500000000000E+002" />
								<ScoreDistribution value="N" recordCount="51821.0" />
								<ScoreDistribution value="F" recordCount="247.0" />
							</Node>
						</Node>
						<Node id="242" score="N" recordCount="5842.0">
							<SimplePredicate field="Montant" operator="greaterOrEqual" value="3.38994995117188E+002" />
							<ScoreDistribution value="N" recordCount="5276.0" />
							<ScoreDistribution value="F" recordCount="566.0" />
							<Node id="243" score="N" recordCount="5587.0">
								<SimplePredicate field="VerifianceCPT1" operator="lessThan" value="2.50000000000000E+000" />
								<ScoreDistribution value="N" recordCount="5116.0" />
								<ScoreDistribution value="F" recordCount="471.0" />
								<Node id="244" score="N" recordCount="2479.0">
									<SimplePredicate field="D2CB" operator="lessThan" value="3.05000000000000E+001" />
									<ScoreDistribution value="N" recordCount="2067.0" />
									<ScoreDistribution value="F" recordCount="412.0" />
									<Node id="245" score="N" recordCount="2235.0">
										<SimplePredicate field="VerifianceCPT2" operator="lessThan" value="2.50000000000000E+000" />
										<ScoreDistribution value="N" recordCount="1919.0" />
										<ScoreDistribution value="F" recordCount="316.0" />
										<Node id="246" score="N" recordCount="1949.0">
											<SimplePredicate field="Montant" operator="lessThan" value="8.48500000000000E+002" />
											<ScoreDistribution value="N" recordCount="1723.0" />
											<ScoreDistribution value="F" recordCount="226.0" />
										</Node>
										<Node id="247" score="N" recordCount="286.0">
											<SimplePredicate field="Montant" operator="greaterOrEqual" value="8.48500000000000E+002" />
											<ScoreDistribution value="N" recordCount="196.0" />
											<ScoreDistribution value="F" recordCount="90.0" />
											<Node id="248" score="N" recordCount="45.0">
												<SimplePredicate field="TauxImpNb_RB" operator="lessThan" value="1.98101634979248E+001" />
												<ScoreDistribution value="N" recordCount="45.0" />
												<ScoreDistribution value="F" recordCount="0.0" />
											</Node>
											<Node id="249" score="N" recordCount="241.0">
												<SimplePredicate field="TauxImpNb_RB" operator="greaterOrEqual" value="1.98101634979248E+001" />
												<ScoreDistribution value="N" recordCount="151.0" />
												<ScoreDistribution value="F" recordCount="90.0" />
												<Node id="250" score="N" recordCount="216.0">
													<SimplePredicate field="CA3TR" operator="lessThan" value="7.46949996948242E+001" />
													<ScoreDistribution value="N" recordCount="126.0" />
													<ScoreDistribution value="F" recordCount="90.0" />
													<Node id="251" score="N" recordCount="205.0">
														<SimplePredicate field="TauxImpNb_RB" operator="lessThan" value="8.98213806152344E+001" />
														<ScoreDistribution value="N" recordCount="125.0" />
														<ScoreDistribution value="F" recordCount="80.0" />
														<Node id="252" score="N" recordCount="95.0">
															<SimplePredicate field="VerifianceCPT1" operator="lessThan" value="1.50000000000000E+000" />
															<ScoreDistribution value="N" recordCount="78.0" />
															<ScoreDistribution value="F" recordCount="17.0" />
															<Node id="253" score="N" recordCount="49.0">
																<SimplePredicate field="Heure" operator="lessThan" value="5.59800000000000E+004" />
																<ScoreDistribution value="N" recordCount="34.0" />
																<ScoreDistribution value="F" recordCount="15.0" />
																<Node id="254" score="N" recordCount="39.0">
																	<SimplePredicate field="TauxImpNb_RB" operator="lessThan" value="5.86960334777832E+001" />
																	<ScoreDistribution value="N" recordCount="31.0" />
																	<ScoreDistribution value="F" recordCount="8.0" />
																</Node>
																<Node id="255" score="F" recordCount="10.0">
																	<SimplePredicate field="TauxImpNb_RB" operator="greaterOrEqual" value="5.86960334777832E+001" />
																	<ScoreDistribution value="N" recordCount="3.0" />
																	<ScoreDistribution value="F" recordCount="7.0" />
																	<Node id="256" score="N" recordCount="4.0">
																		<SimplePredicate field="Montant" operator="lessThan" value="1.13250000000000E+003" />
																		<ScoreDistribution value="N" recordCount="3.0" />
																		<ScoreDistribution value="F" recordCount="1.0" />
																	</Node>
																	<Node id="257" score="F" recordCount="6.0">
																		<SimplePredicate field="Montant" operator="greaterOrEqual" value="1.13250000000000E+003" />
																		<ScoreDistribution value="N" recordCount="0.0" />
																		<ScoreDistribution value="F" recordCount="6.0" />
																	</Node>
																</Node>
															</Node>
															<Node id="258" score="N" recordCount="46.0">
																<SimplePredicate field="Heure" operator="greaterOrEqual" value="5.59800000000000E+004" />
																<ScoreDistribution value="N" recordCount="44.0" />
																<ScoreDistribution value="F" recordCount="2.0" />
															</Node>
														</Node>
														<Node id="259" score="F" recordCount="110.0">
															<SimplePredicate field="VerifianceCPT1" operator="greaterOrEqual" value="1.50000000000000E+000" />
															<ScoreDistribution value="N" recordCount="47.0" />
															<ScoreDistribution value="F" recordCount="63.0" />
															<Node id="260" score="F" recordCount="74.0">
																<SimplePredicate field="Heure" operator="lessThan" value="6.47700000000000E+004" />
																<ScoreDistribution value="N" recordCount="23.0" />
																<ScoreDistribution value="F" recordCount="51.0" />
															</Node>
															<Node id="261" score="N" recordCount="36.0">
																<SimplePredicate field="Heure" operator="greaterOrEqual" value="6.47700000000000E+004" />
																<ScoreDistribution value="N" recordCount="24.0" />
																<ScoreDistribution value="F" recordCount="12.0" />
															</Node>
														</Node>
													</Node>
													<Node id="262" score="F" recordCount="11.0">
														<SimplePredicate field="TauxImpNb_RB" operator="greaterOrEqual" value="8.98213806152344E+001" />
														<ScoreDistribution value="N" recordCount="1.0" />
														<ScoreDistribution value="F" recordCount="10.0" />
													</Node>
												</Node>
												<Node id="263" score="N" recordCount="25.0">
													<SimplePredicate field="CA3TR" operator="greaterOrEqual" value="7.46949996948242E+001" />
													<ScoreDistribution value="N" recordCount="25.0" />
													<ScoreDistribution value="F" recordCount="0.0" />
												</Node>
											</Node>
										</Node>
									</Node>
									<Node id="264" score="N" recordCount="244.0">
										<SimplePredicate field="VerifianceCPT2" operator="greaterOrEqual" value="2.50000000000000E+000" />
										<ScoreDistribution value="N" recordCount="148.0" />
										<ScoreDistribution value="F" recordCount="96.0" />
										<Node id="265" score="N" recordCount="109.0">
											<SimplePredicate field="Montant" operator="lessThan" value="4.16169982910156E+002" />
											<ScoreDistribution value="N" recordCount="83.0" />
											<ScoreDistribution value="F" recordCount="26.0" />
										</Node>
										<Node id="266" score="F" recordCount="135.0">
											<SimplePredicate field="Montant" operator="greaterOrEqual" value="4.16169982910156E+002" />
											<ScoreDistribution value="N" recordCount="65.0" />
											<ScoreDistribution value="F" recordCount="70.0" />
											<Node id="267" score="N" recordCount="116.0">
												<SimplePredicate field="TauxImpNb_RB" operator="lessThan" value="6.19244918823242E+001" />
												<ScoreDistribution value="N" recordCount="63.0" />
												<ScoreDistribution value="F" recordCount="53.0" />
											</Node>
											<Node id="268" score="F" recordCount="19.0">
												<SimplePredicate field="TauxImpNb_RB" operator="greaterOrEqual" value="6.19244918823242E+001" />
												<ScoreDistribution value="N" recordCount="2.0" />
												<ScoreDistribution value="F" recordCount="17.0" />
											</Node>
										</Node>
									</Node>
								</Node>
								<Node id="269" score="N" recordCount="3108.0">
									<SimplePredicate field="D2CB" operator="greaterOrEqual" value="3.05000000000000E+001" />
									<ScoreDistribution value="N" recordCount="3049.0" />
									<ScoreDistribution value="F" recordCount="59.0" />
								</Node>
							</Node>
							<Node id="270" score="N" recordCount="255.0">
								<SimplePredicate field="VerifianceCPT1" operator="greaterOrEqual" value="2.50000000000000E+000" />
								<ScoreDistribution value="N" recordCount="160.0" />
								<ScoreDistribution value="F" recordCount="95.0" />
								<Node id="271" score="N" recordCount="247.0">
									<SimplePredicate field="CA3TRetMtt" operator="lessThan" value="1.49969995117188E+003" />
									<ScoreDistribution value="N" recordCount="160.0" />
									<ScoreDistribution value="F" recordCount="87.0" />
									<Node id="272" score="F" recordCount="136.0">
										<SimplePredicate field="D2CB" operator="lessThan" value="2.65000000000000E+001" />
										<ScoreDistribution value="N" recordCount="63.0" />
										<ScoreDistribution value="F" recordCount="73.0" />
										<Node id="273" score="N" recordCount="44.0">
											<SimplePredicate field="Montant" operator="lessThan" value="3.98950012207031E+002" />
											<ScoreDistribution value="N" recordCount="31.0" />
											<ScoreDistribution value="F" recordCount="13.0" />
											<Node id="274" score="N" recordCount="31.0">
												<SimplePredicate field="Montant" operator="lessThan" value="3.77815002441406E+002" />
												<ScoreDistribution value="N" recordCount="18.0" />
												<ScoreDistribution value="F" recordCount="13.0" />
												<Node id="275" score="N" recordCount="27.0">
													<SimplePredicate field="Montant" operator="lessThan" value="3.69005004882813E+002" />
													<ScoreDistribution value="N" recordCount="18.0" />
													<ScoreDistribution value="F" recordCount="9.0" />
												</Node>
												<Node id="276" score="F" recordCount="4.0">
													<SimplePredicate field="Montant" operator="greaterOrEqual" value="3.69005004882813E+002" />
													<ScoreDistribution value="N" recordCount="0.0" />
													<ScoreDistribution value="F" recordCount="4.0" />
												</Node>
											</Node>
											<Node id="277" score="N" recordCount="13.0">
												<SimplePredicate field="Montant" operator="greaterOrEqual" value="3.77815002441406E+002" />
												<ScoreDistribution value="N" recordCount="13.0" />
												<ScoreDistribution value="F" recordCount="0.0" />
											</Node>
										</Node>
										<Node id="278" score="F" recordCount="92.0">
											<SimplePredicate field="Montant" operator="greaterOrEqual" value="3.98950012207031E+002" />
											<ScoreDistribution value="N" recordCount="32.0" />
											<ScoreDistribution value="F" recordCount="60.0" />
											<Node id="279" score="F" recordCount="11.0">
												<SimplePredicate field="Montant" operator="lessThan" value="3.99989990234375E+002" />
												<ScoreDistribution value="N" recordCount="0.0" />
												<ScoreDistribution value="F" recordCount="11.0" />
											</Node>
											<Node id="280" score="F" recordCount="81.0">
												<SimplePredicate field="Montant" operator="greaterOrEqual" value="3.99989990234375E+002" />
												<ScoreDistribution value="N" recordCount="32.0" />
												<ScoreDistribution value="F" recordCount="49.0" />
												<Node id="281" score="N" recordCount="23.0">
													<SimplePredicate field="CA3TRetMtt" operator="lessThan" value="4.93725006103516E+002" />
													<ScoreDistribution value="N" recordCount="16.0" />
													<ScoreDistribution value="F" recordCount="7.0" />
													<Node id="282" score="N" recordCount="16.0">
														<SimplePredicate field="TauxImpNb_RB" operator="lessThan" value="4.19605903625488E+001" />
														<ScoreDistribution value="N" recordCount="14.0" />
														<ScoreDistribution value="F" recordCount="2.0" />
													</Node>
													<Node id="283" score="F" recordCount="7.0">
														<SimplePredicate field="TauxImpNb_RB" operator="greaterOrEqual" value="4.19605903625488E+001" />
														<ScoreDistribution value="N" recordCount="2.0" />
														<ScoreDistribution value="F" recordCount="5.0" />
														<Node id="284" score="F" recordCount="4.0">
															<SimplePredicate field="Montant" operator="lessThan" value="4.51869995117188E+002" />
															<ScoreDistribution value="N" recordCount="0.0" />
															<ScoreDistribution value="F" recordCount="4.0" />
														</Node>
														<Node id="285" score="N" recordCount="3.0">
															<SimplePredicate field="Montant" operator="greaterOrEqual" value="4.51869995117188E+002" />
															<ScoreDistribution value="N" recordCount="2.0" />
															<ScoreDistribution value="F" recordCount="1.0" />
														</Node>
													</Node>
												</Node>
												<Node id="286" score="F" recordCount="58.0">
													<SimplePredicate field="CA3TRetMtt" operator="greaterOrEqual" value="4.93725006103516E+002" />
													<ScoreDistribution value="N" recordCount="16.0" />
													<ScoreDistribution value="F" recordCount="42.0" />
												</Node>
											</Node>
										</Node>
									</Node>
									<Node id="287" score="N" recordCount="111.0">
										<SimplePredicate field="D2CB" operator="greaterOrEqual" value="2.65000000000000E+001" />
										<ScoreDistribution value="N" recordCount="97.0" />
										<ScoreDistribution value="F" recordCount="14.0" />
										<Node id="288" score="N" recordCount="102.0">
											<SimplePredicate field="TauxImpNb_RB" operator="lessThan" value="6.56434173583984E+001" />
											<ScoreDistribution value="N" recordCount="93.0" />
											<ScoreDistribution value="F" recordCount="9.0" />
										</Node>
										<Node id="289" score="F" recordCount="9.0">
											<SimplePredicate field="TauxImpNb_RB" operator="greaterOrEqual" value="6.56434173583984E+001" />
											<ScoreDistribution value="N" recordCount="4.0" />
											<ScoreDistribution value="F" recordCount="5.0" />
											<Node id="290" score="N" recordCount="3.0">
												<SimplePredicate field="TauxImpNB_CPM" operator="lessThan" value="3.92228698730469E+001" />
												<ScoreDistribution value="N" recordCount="3.0" />
												<ScoreDistribution value="F" recordCount="0.0" />
											</Node>
											<Node id="291" score="F" recordCount="6.0">
												<SimplePredicate field="TauxImpNB_CPM" operator="greaterOrEqual" value="3.92228698730469E+001" />
												<ScoreDistribution value="N" recordCount="1.0" />
												<ScoreDistribution value="F" recordCount="5.0" />
											</Node>
										</Node>
									</Node>
								</Node>
								<Node id="292" score="F" recordCount="8.0">
									<SimplePredicate field="CA3TRetMtt" operator="greaterOrEqual" value="1.49969995117188E+003" />
									<ScoreDistribution value="N" recordCount="0.0" />
									<ScoreDistribution value="F" recordCount="8.0" />
								</Node>
							</Node>
						</Node>
					</Node>
				</Node>
				<Node id="293" score="N" recordCount="26882.0">
					<SimplePredicate field="CA3TR" operator="greaterOrEqual" value="2.80945007324219E+002" />
					<ScoreDistribution value="N" recordCount="25234.0" />
					<ScoreDistribution value="F" recordCount="1648.0" />
					<Node id="294" score="N" recordCount="4548.0">
						<SimplePredicate field="D2CB" operator="lessThan" value="8.05000000000000E+001" />
						<ScoreDistribution value="N" recordCount="3455.0" />
						<ScoreDistribution value="F" recordCount="1093.0" />
						<Node id="295" score="F" recordCount="427.0">
							<SimplePredicate field="DiffDateTr3" operator="lessThan" value="2.97013902664185E+000" />
							<ScoreDistribution value="N" recordCount="96.0" />
							<ScoreDistribution value="F" recordCount="331.0" />
							<Node id="296" score="N" recordCount="146.0">
								<SimplePredicate field="CA3TRetMtt" operator="lessThan" value="4.94079986572266E+002" />
								<ScoreDistribution value="N" recordCount="84.0" />
								<ScoreDistribution value="F" recordCount="62.0" />
								<Node id="297" score="N" recordCount="130.0">
									<SimplePredicate field="TauxImpNb_RB" operator="lessThan" value="6.58684692382813E+001" />
									<ScoreDistribution value="N" recordCount="82.0" />
									<ScoreDistribution value="F" recordCount="48.0" />
									<Node id="298" score="N" recordCount="31.0">
										<SimplePredicate field="Montant" operator="lessThan" value="3.50849990844727E+001" />
										<ScoreDistribution value="N" recordCount="28.0" />
										<ScoreDistribution value="F" recordCount="3.0" />
									</Node>
									<Node id="299" score="N" recordCount="99.0">
										<SimplePredicate field="Montant" operator="greaterOrEqual" value="3.50849990844727E+001" />
										<ScoreDistribution value="N" recordCount="54.0" />
										<ScoreDistribution value="F" recordCount="45.0" />
										<Node id="300" score="N" recordCount="93.0">
											<SimplePredicate field="Heure" operator="lessThan" value="7.30800000000000E+004" />
											<ScoreDistribution value="N" recordCount="54.0" />
											<ScoreDistribution value="F" recordCount="39.0" />
											<Node id="301" score="N" recordCount="81.0">
												<SimplePredicate field="EcartNumCheq" operator="lessThan" value="1.45000000000000E+001" />
												<ScoreDistribution value="N" recordCount="52.0" />
												<ScoreDistribution value="F" recordCount="29.0" />
												<Node id="302" score="F" recordCount="30.0">
													<SimplePredicate field="DiffDateTr1" operator="lessThan" value="5.69444447755814E-002" />
													<ScoreDistribution value="N" recordCount="13.0" />
													<ScoreDistribution value="F" recordCount="17.0" />
													<Node id="303" score="N" recordCount="9.0">
														<SimplePredicate field="CA3TRetMtt" operator="lessThan" value="3.70570007324219E+002" />
														<ScoreDistribution value="N" recordCount="9.0" />
														<ScoreDistribution value="F" recordCount="0.0" />
													</Node>
													<Node id="304" score="F" recordCount="21.0">
														<SimplePredicate field="CA3TRetMtt" operator="greaterOrEqual" value="3.70570007324219E+002" />
														<ScoreDistribution value="N" recordCount="4.0" />
														<ScoreDistribution value="F" recordCount="17.0" />
														<Node id="305" score="F" recordCount="10.0">
															<SimplePredicate field="TauxImpNb_RB" operator="lessThan" value="3.13131942749023E+001" />
															<ScoreDistribution value="N" recordCount="0.0" />
															<ScoreDistribution value="F" recordCount="10.0" />
														</Node>
														<Node id="306" score="F" recordCount="11.0">
															<SimplePredicate field="TauxImpNb_RB" operator="greaterOrEqual" value="3.13131942749023E+001" />
															<ScoreDistribution value="N" recordCount="4.0" />
															<ScoreDistribution value="F" recordCount="7.0" />
															<Node id="307" score="N" recordCount="6.0">
																<SimplePredicate field="TauxImpNb_RB" operator="lessThan" value="3.92299423217773E+001" />
																<ScoreDistribution value="N" recordCount="4.0" />
																<ScoreDistribution value="F" recordCount="2.0" />
																<Node id="308" score="N" recordCount="3.0">
																	<SimplePredicate field="EcartNumCheq" operator="lessThan" value="8.50000000000000E+000" />
																	<ScoreDistribution value="N" recordCount="3.0" />
																	<ScoreDistribution value="F" recordCount="0.0" />
																</Node>
																<Node id="309" score="F" recordCount="3.0">
